svm_type c_svc
kernel_type rbf
gamma 0.00195695
nr_class 3
total_sv 431
rho 0.452704 -1.06972 -0.995638
label 2 1 0
probA -2.09116 1.2847 -26.9616
probB 0.138081 -3.80895 24.6265
nr_sv 221 185 25
SV
0.6589850027383694 0 1:0.15811388 5:-4 7:1 45:1 209:1 226:1 241:1 248:1 261:1 263:1 265:1 272:1 276:1 277:1 352:1 408:1 410:1 429:1 449:1 464:1 470:1 479:1 496:1 502:1 
0.53196635513414 0 1:0 7:2 32:1 55:1 96:1 207:1 226:1 230:1 241:2 260:-3 298:1 407:1 471:1 482:1 483:1 501:1 
1 0 1:0.5809475 7:3 11:2 35:1 94:1 229:1 233:1 246:2 261:1 262:3 265:1 
0 0.04333880621892622 1:0.93914855 6:1 7:1 8:2 10:1 17:1 21:1 22:1 97:1 153:1 155:1 174:1 194:1 209:1 215:1 224:1 241:1 247:1 261:1 263:1 265:1 272:1 276:1 277:1 352:1 408:1 410:1 429:1 449:1 464:1 470:1 479:1 496:1 502:1 
1 0.1000045830653231 1:0.18650096 7:2 8:2 17:1 30:1 58:1 215:1 231:1 245:1 260:1 262:2 264:1 290:1 341:1 367:1 383:1 385:1 469:1 471:1 501:1 
1 0.4334995382373051 1:0.17770466 7:1 8:1 98:1 118:1 216:1 235:1 247:1 251:1 257:1 258:1 260:-1 261:1 265:2 316:1 373:1 384:1 442:1 464:1 471:2 475:1 479:1 
1 0 1:0 7:1 9:1 207:1 216:1 256:1 258:1 263:1 265:1 277:1 318:1 333:1 479:1 
1 0 1:0.23262105 5:1 7:1 12:1 17:1 31:1 120:1 144:1 151:1 210:1 216:1 234:1 237:1 241:1 246:1 247:1 251:1 272:1 286:1 321:1 328:1 366:1 371:1 464:2 469:1 471:2 488:1 489:1 
0 0.05839016568700191 1:0.16222142 5:2 7:2 8:1 141:1 152:1 216:1 226:2 241:1 260:-3 298:1 407:1 471:1 482:1 483:1 501:1 
1 0.6730504614707552 1:0.30151134 7:2 86:1 138:1 209:1 262:1 264:1 270:1 276:1 402:1 464:3 468:1 471:1 481:1 496:1 497:1 
1 0 1:0.34782609 5:-3 7:1 72:1 82:1 139:1 145:1 193:1 226:1 227:1 232:1 235:1 241:2 261:1 265:1 276:1 298:1 337:1 394:1 448:1 471:1 479:1 480:1 481:1 484:1 490:1 495:1 496:1 503:1 509:1 511:1 
1 0.1349192873682076 1:0.19658927 7:1 43:1 197:1 198:1 209:1 216:1 221:1 224:1 232:1 256:1 261:1 265:1 276:1 298:1 337:1 394:1 448:1 471:1 479:1 480:1 481:1 484:1 490:1 495:1 496:1 503:1 509:1 511:1 
1 0 1:0.18257419 5:-3 7:1 129:1 224:1 227:1 248:1 258:1 263:1 265:1 277:1 318:1 333:1 479:1 
1 0 1:0.34188173 7:1 8:1 177:1 207:1 231:1 234:1 240:1 245:1 246:1 262:1 263:1 280:1 501:1 
0 0.5799350126159739 1:0 7:1 80:1 258:1 263:1 265:1 277:1 318:1 333:1 479:1 
0.1182136773934831 1 1:0 7:2 9:1 15:1 224:1 237:1 254:1 272:1 286:1 321:1 328:1 366:1 371:1 464:2 469:1 471:2 488:1 489:1 
1 0 1:0.47140452 7:2 11:1 254:1 262:2 490:1 
0 0.3129450744078828 1:0.069006556 7:1 12:1 90:1 226:1 233:1 246:1 256:1 272:1 286:1 321:1 328:1 366:1 371:1 464:2 469:1 471:2 488:1 489:1 
1 0 1:0.41666667 7:3 12:1 30:1 87:1 118:1 216:1 226:1 240:1 262:3 471:1 483:1 485:1 492:1 493:1 496:1 501:1 511:1 
1 0 1:0.1204829 7:1 9:3 11:2 41:1 120:1 153:1 196:1 209:1 230:1 241:1 246:1 261:1 263:1 265:1 272:1 276:1 277:1 352:1 408:1 410:1 429:1 449:1 464:1 470:1 479:1 496:1 502:1 
1 0 1:0.4472136 7:3 8:1 24:1 35:1 42:1 88:1 220:1 224:1 226:1 232:1 247:1 262:3 264:1 290:1 296:1 350:1 462:1 496:1 501:1 511:1 
1 0 1:0.59408853 7:3 215:1 237:1 262:3 471:1 483:1 485:1 492:1 493:1 496:1 501:1 511:1 
0 0.03148033695986655 1:0.22792115 5:4 7:1 8:1 27:1 54:2 90:1 191:1 209:1 214:1 216:1 218:1 221:1 226:2 229:1 233:1 241:1 246:2 254:1 272:1 286:1 321:1 328:1 366:1 371:1 464:2 469:1 471:2 488:1 489:1 
0.2427476791897971 0 1:0.1820063 7:1 47:1 83:1 91:1 117:1 163:1 214:1 216:1 224:1 226:2 229:1 233:1 242:1 246:1 272:1 286:1 321:1 328:1 366:1 371:1 464:2 469:1 471:2 488:1 489:1 
0 0.3589318939215252 1:0 7:1 232:1 252:2 254:1 258:1 263:1 265:1 277:1 318:1 333:1 479:1 
1 0.2804372764877603 1:0.12649111 7:2 134:1 224:1 247:1 262:1 264:1 270:1 276:1 402:1 464:3 468:1 471:1 481:1 496:1 497:1 
0 0.3413239179828786 1:0 7:1 24:1 58:1 101:1 111:1 226:2 230:1 242:1 248:1 258:1 263:1 265:1 277:1 318:1 333:1 479:1 
0.9927192962802989 0 1:0.18860838 7:1 129:1 224:2 225:1 244:1 261:1 265:1 276:1 298:1 337:1 394:1 448:1 471:1 479:1 480:1 481:1 484:1 490:1 495:1 496:1 503:1 509:1 511:1 
1 0 1:0.26516504 7:2 42:1 70:1 200:1 216:1 233:1 241:1 262:1 266:2 276:1 296:1 331:1 415:1 440:1 450:1 455:1 464:1 466:1 475:1 486:1 488:1 491:1 496:2 501:1 502:1 509:1 510:1 
1 0 1:0.16903085 7:1 8:1 22:1 23:1 94:1 262:1 291:1 361:2 476:1 
1 0 1:0 7:2 237:1 254:1 258:1 263:1 265:1 277:1 318:1 333:1 479:1 
0 0.500536940568061 1:0 5:1 7:1 132:1 244:1 256:1 258:1 263:1 265:1 277:1 318:1 333:1 479:1 
1 0.1800718856964329 1:0.62403772 5:1 7:4 8:2 12:1 23:1 28:1 158:1 214:1 224:1 226:1 229:1 241:1 260:1 261:1 262:4 265:1 267:1 420:1 478:1 479:1 497:1 
1 0 1:0.57142857 7:2 8:1 22:1 23:1 262:2 509:1 
1 0 1:0.095346259 7:1 79:1 209:1 216:1 226:1 235:1 250:1 262:1 264:1 279:1 282:1 479:1 501:1 
1 0 1:0.040422604 7:1 8:1 9:3 11:2 33:1 42:1 96:1 235:1 240:1 246:1 249:1 260:-3 298:1 407:1 471:1 482:1 483:1 501:1 
0.8834670733364023 0 1:0 7:2 8:1 178:1 264:1 270:1 502:1 505:1 
1 0 1:0.38490018 7:2 8:1 63:1 78:1 207:1 209:2 224:1 254:1 258:1 263:1 265:1 277:1 318:1 333:1 479:1 
0 1 1:0 5:1 6:1 7:1 10:1 260:-3 298:1 407:1 471:1 482:1 483:1 501:1 
0.8074651679990992 0 1:0 5:-3 6:1 7:1 8:1 10:1 13:1 14:1 16:1 18:1 19:1 20:1 113:2 227:1 233:1 264:1 270:1 502:1 505:1 
1 0 1:0.17888544 7:1 8:2 12:1 28:1 76:1 150:1 207:1 212:1 216:2 232:1 235:1 241:1 257:1 258:1 265:1 332:1 344:1 471:1 479:1 496:2 502:1 
1 0 1:0.15161961 7:1 78:1 161:1 216:2 220:1 224:1 226:1 231:1 233:1 234:1 254:1 256:1 258:1 263:1 265:1 277:1 318:1 333:1 479:1 
0 0.2724279112203297 1:0.08247861 7:1 90:1 226:1 229:1 233:1 256:1 272:1 286:1 321:1 328:1 366:1 371:1 464:2 469:1 471:2 488:1 489:1 
1 0 1:0.055901699 7:2 42:1 199:1 209:1 214:1 216:1 226:1 235:1 264:1 270:1 502:1 505:1 
0 0.4665559295656543 1:0 7:1 258:1 263:1 265:1 277:1 318:1 333:1 479:1 
0 0.0737217471553039 1:0 7:1 203:1 216:1 254:1 258:1 263:1 265:1 277:1 318:1 333:1 479:1 
1 0 1:0.33333333 7:2 73:1 262:2 263:1 264:1 270:1 277:1 483:1 502:1 
1 0 1:0.51287764 5:1 7:2 9:1 35:1 86:1 112:1 128:1 130:1 214:1 216:1 246:1 262:2 367:1 401:1 431:1 469:1 471:1 477:1 481:1 488:1 490:1 502:1 509:1 
1 0 1:0.098058068 7:1 213:1 228:1 262:1 281:1 409:1 462:1 471:1 479:1 481:1 
1 0 1:0.36004115 5:2 7:2 54:1 77:1 79:2 155:1 226:1 229:1 230:1 239:2 245:1 250:1 253:1 254:1 255:1 262:2 334:1 401:1 488:1 502:1 509:1 
1 0 1:0.034503278 7:5 100:1 204:2 224:1 226:1 246:1 251:1 257:1 258:1 265:1 332:1 344:1 471:1 479:1 496:2 502:1 
0.5482555067459899 0 1:0.12309149 5:-1 7:1 45:1 54:1 222:1 224:1 227:1 258:1 263:1 265:1 277:1 318:1 333:1 479:1 
1 0 1:0.60869764 5:-3 7:4 227:1 228:1 232:1 235:1 237:1 262:4 267:1 305:1 460:1 471:1 473:1 483:1 
1 0 1:0 7:2 246:1 254:1 264:1 270:1 502:1 505:1 
0 0.03644430988704221 1:0 7:1 9:1 24:1 30:1 51:1 90:1 226:2 241:1 254:1 272:1 286:1 321:1 328:1 366:1 371:1 464:2 469:1 471:2 488:1 489:1 
0 0.3664888933951049 1:0 7:1 235:1 258:1 263:1 265:1 277:1 318:1 333:1 479:1 
1 0 1:0.35856858 7:2 214:1 226:2 233:1 235:2 254:1 262:2 471:1 479:1 490:1 493:1 494:1 495:1 
0.4080604507159873 0.04642531054181949 1:0 3:1 7:2 10:1 12:1 39:1 254:1 260:-3 298:1 407:1 471:1 482:1 483:1 501:1 
0 0.9614531862799456 1:0.14285714 5:3 7:1 27:1 116:1 209:1 224:1 232:1 240:1 254:2 272:1 286:1 321:1 328:1 366:1 371:1 464:2 469:1 471:2 488:1 489:1 
1 0 1:0.34668762 5:1 7:2 25:1 144:1 211:1 216:1 225:1 226:1 247:1 256:1 262:2 264:1 270:1 434:1 464:1 479:1 502:1 
1 0.7938456161467239 1:0.040160966 7:1 226:3 247:1 257:1 258:1 265:1 332:1 344:1 471:1 479:1 496:2 502:1 
1 0.020163048809923 1:0.20519567 7:1 74:1 207:1 209:2 228:1 229:1 230:1 253:1 254:2 262:1 484:1 
1 0 1:0.13363062 7:1 8:1 34:1 262:1 264:1 270:1 297:1 334:1 431:1 464:1 495:1 502:1 
1 0 1:0.42133242 7:3 73:1 94:1 209:1 210:2 226:2 229:1 234:1 243:1 262:3 283:1 427:1 438:1 443:1 464:1 471:1 488:2 509:1 
1 0.2224212580828454 1:0.19069252 7:1 229:1 261:1 262:2 265:1 311:1 385:1 437:1 481:1 488:1 496:1 500:1 
1 0.04336939016197414 1:0 7:1 69:1 142:1 233:1 246:1 256:1 258:1 263:1 265:1 277:1 318:1 333:1 479:1 
1 0 1:0 5:-3 7:1 8:1 11:1 26:1 63:1 206:1 240:1 257:1 258:1 260:-1 261:1 265:2 316:1 373:1 384:1 442:1 464:1 471:2 475:1 479:1 
1 0.1900422722271617 1:0.041996053 5:2 7:1 9:1 35:2 46:1 54:1 173:1 191:1 225:1 229:1 241:2 246:2 272:1 286:1 321:1 328:1 366:1 371:1 464:2 469:1 471:2 488:1 489:1 
0.2990168362775413 0 1:0.38575837 5:-1 7:1 8:3 75:1 78:1 144:1 216:1 224:1 226:2 232:1 235:1 246:1 254:1 258:1 263:1 265:1 277:1 318:1 333:1 479:1 
0 0.1173439589074575 1:0 7:2 168:1 169:1 207:1 226:2 229:1 241:1 254:1 272:1 286:1 321:1 328:1 366:1 371:1 464:2 469:1 471:2 488:1 489:1 
0 0.4963210673270095 1:0 3:1 7:1 10:1 260:-3 298:1 407:1 471:1 482:1 483:1 501:1 
1 0 1:0.22866478 7:2 26:1 36:1 59:1 226:1 228:2 229:3 232:1 246:1 247:1 262:2 282:1 477:1 494:1 
1 0 1:0 7:2 36:1 226:1 254:1 264:1 270:1 502:1 505:1 
1 0 1:0 7:4 8:1 11:1 257:1 258:1 265:1 332:1 344:1 471:1 479:1 496:2 502:1 
1 0 1:0.13483997 7:1 9:1 212:1 226:1 234:1 248:1 262:2 335:1 391:1 471:1 477:1 488:1 496:2 509:1 
0 0.04239508291402001 1:0.23918244 5:1 7:1 8:1 41:1 122:1 178:1 216:1 221:1 222:1 226:2 240:1 256:1 261:1 265:1 276:1 298:1 337:1 394:1 448:1 471:1 479:1 480:1 481:1 484:1 490:1 495:1 496:1 503:1 509:1 511:1 
1 0 1:0.35 7:3 8:1 222:1 224:1 228:1 233:1 262:2 264:1 314:1 320:1 346:1 347:1 357:1 411:1 471:1 477:1 481:1 502:1 504:1 511:1 
1 0 1:0 5:-2 7:2 264:1 270:1 502:1 505:1 
1 0 1:0 5:-3 7:1 8:1 122:1 214:1 220:1 224:1 227:1 264:1 270:1 502:1 505:1 
1 0 1:0.19518001 7:1 9:1 131:1 209:1 213:1 216:1 241:1 246:1 247:1 254:1 272:1 286:1 321:1 328:1 366:1 371:1 464:2 469:1 471:2 488:1 489:1 
1 0.02133789598318789 1:0.28736848 7:2 11:1 33:1 209:1 226:1 229:1 231:1 233:1 237:1 241:2 250:1 256:1 262:1 264:1 270:1 276:1 402:1 464:3 468:1 471:1 481:1 496:1 497:1 
1 0 1:0.083333333 7:1 9:1 69:1 79:1 230:1 246:1 248:1 264:1 270:1 502:1 505:1 
1 0 1:0 7:2 254:1 264:1 270:1 502:1 505:1 
0 0.1483487461095575 1:0.089087081 7:1 199:1 233:1 244:1 272:1 286:1 321:1 328:1 366:1 371:1 464:2 469:1 471:2 488:1 489:1 
1 0 1:0.1 7:1 23:1 42:1 86:1 262:1 329:1 376:1 464:1 471:1 476:1 483:2 490:2 496:1 501:1 509:1 
1 0 1:0.31851103 7:1 21:1 51:1 55:1 216:2 230:1 235:1 239:1 240:1 241:1 242:1 254:1 261:1 265:1 276:1 298:1 337:1 394:1 448:1 471:1 479:1 480:1 481:1 484:1 490:1 495:1 496:1 503:1 509:1 511:1 
1 0 1:0.19658927 3:1 5:-3 7:1 10:1 30:1 43:1 55:1 216:1 226:2 227:1 229:1 232:1 233:1 245:1 246:1 260:-3 298:1 407:1 471:1 482:1 483:1 501:1 
1 0 1:0 7:2 8:1 264:1 270:1 502:1 505:1 
1 0 1:0.18490007 7:2 27:1 222:1 239:1 262:1 281:1 409:1 462:1 471:1 479:1 481:1 
1 0 1:0.24455799 7:2 44:1 76:1 209:2 212:1 216:1 220:1 225:1 226:1 260:-3 262:2 266:1 284:1 290:1 293:1 470:1 479:1 480:1 482:1 506:1 511:2 
1 0.5378353563290439 1:0.29346959 6:1 7:2 10:1 56:1 130:1 182:1 226:1 233:1 241:1 245:1 260:-1 261:1 262:2 265:1 314:1 324:1 398:1 464:1 477:1 482:1 484:1 502:1 511:1 
0 0.3223561431864572 1:0.13801311 7:2 216:1 224:1 235:1 254:1 272:1 286:1 321:1 328:1 366:1 371:1 464:2 469:1 471:2 488:1 489:1 
1 0 1:0.13043478 7:2 8:1 32:1 57:1 209:1 216:1 224:1 232:1 246:1 247:1 254:1 261:1 265:1 276:1 298:1 337:1 394:1 448:1 471:1 479:1 480:1 481:1 484:1 490:1 495:1 496:1 503:1 509:1 511:1 
1 0 1:0.18463724 7:2 12:1 27:1 177:1 209:1 216:1 226:1 228:1 239:1 241:1 247:1 256:1 262:1 263:1 325:1 448:1 471:1 480:1 509:1 
1 0 1:0.14433757 7:1 132:1 216:1 224:1 258:1 263:1 265:1 277:1 318:1 333:1 479:1 
1 0 1:0.11268723 7:2 12:1 70:1 209:1 210:1 213:1 246:1 247:1 254:1 272:1 286:1 321:1 328:1 366:1 371:1 464:2 469:1 471:2 488:1 489:1 
1 0 1:0.34848139 7:2 112:1 146:1 176:1 214:1 216:1 222:1 226:1 233:1 235:1 247:1 254:1 262:2 276:1 296:1 321:1 341:1 358:1 455:1 479:1 481:2 484:1 488:1 496:1 497:1 509:1 510:1 
1 0.3938182579609434 1:0.57008771 5:1 6:1 7:4 10:1 12:1 165:1 223:1 224:1 242:1 262:3 263:1 477:1 479:1 483:1 488:1 
1 1 1:0.17888544 7:2 262:1 264:1 270:1 276:1 402:1 464:3 468:1 471:1 481:1 496:1 497:1 
1 0 1:0.086066297 7:1 24:1 115:1 216:2 222:1 226:1 229:1 241:2 247:1 254:1 256:1 262:1 263:1 277:1 278:1 349:1 
0 0.02376794547987374 1:0 7:1 29:1 46:1 75:1 165:1 185:1 186:1 209:1 225:2 226:1 229:1 241:1 254:1 260:-3 298:1 407:1 471:1 482:1 483:1 501:1 
1 0 1:0.039840954 7:2 26:1 58:1 209:3 214:1 216:1 222:1 226:2 229:1 241:1 252:1 254:1 260:-3 298:1 407:1 471:1 482:1 483:1 501:1 
1 0 1:0.19034675 7:2 45:1 120:1 209:1 226:2 232:1 237:1 238:1 241:2 246:1 247:1 251:1 254:1 261:1 265:1 276:1 298:1 337:1 394:1 448:1 471:1 479:1 480:1 481:1 484:1 490:1 495:1 496:1 503:1 509:1 511:1 
0 0.1272762629222406 1:0.24077171 7:1 12:1 136:1 208:1 225:1 239:1 254:1 256:1 261:1 265:1 276:1 298:1 337:1 394:1 448:1 471:1 479:1 480:1 481:1 484:1 490:1 495:1 496:1 503:1 509:1 511:1 
1 0 1:0.6681531 7:2 8:1 22:1 23:1 262:2 263:1 291:1 361:1 481:1 
1 0 1:0.086066297 5:2 7:1 11:1 33:1 207:1 214:2 216:1 223:1 229:1 247:1 254:1 257:1 258:1 265:1 332:1 344:1 471:1 479:1 496:2 502:1 
1 0 1:0 7:2 25:1 222:2 226:1 241:2 243:1 256:1 260:-3 298:1 407:1 471:1 482:1 483:1 501:1 
0 0.2198760100539654 1:0.10910895 7:1 9:1 12:1 15:1 35:1 76:1 208:1 254:1 272:1 286:1 321:1 328:1 366:1 371:1 464:2 469:1 471:2 488:1 489:1 
1 0 1:0.19764235 7:1 11:2 21:1 41:1 76:1 160:1 185:1 195:1 200:1 209:1 211:1 220:1 231:1 233:1 236:1 241:2 246:1 247:1 254:1 255:1 261:1 263:1 265:1 272:1 276:1 277:1 352:1 408:1 410:1 429:1 449:1 464:1 470:1 479:1 496:1 502:1 
1 0 1:0.16357216 7:1 12:1 23:1 46:1 77:1 104:1 121:1 159:1 160:1 201:1 210:1 224:1 226:2 237:1 239:1 241:1 246:1 261:1 265:1 276:1 298:1 337:1 394:1 448:1 471:1 479:1 480:1 481:1 484:1 490:1 495:1 496:1 503:1 509:1 511:1 
1 0 1:0.60388108 7:4 12:1 202:1 210:1 242:1 246:1 262:4 307:1 388:1 479:1 490:1 502:1 
0 0.221700009158504 1:0 7:1 9:1 21:1 25:1 224:1 232:1 260:-3 298:1 407:1 471:1 482:1 483:1 501:1 
1 0.02266238077835355 1:0.16012815 7:1 26:2 78:1 154:1 212:1 222:1 224:1 226:1 228:2 246:1 258:1 263:1 265:1 277:1 318:1 333:1 479:1 
1 0 1:0.34641016 5:2 7:1 8:1 13:1 23:1 42:1 54:1 94:1 209:1 222:1 229:1 240:1 262:1 263:1 460:1 
1 0 1:0.11433239 7:1 29:2 41:1 76:1 134:1 209:1 226:1 234:1 243:1 246:1 260:-3 298:1 407:1 471:1 482:1 483:1 501:1 
1 0 1:0.16903085 7:1 17:1 21:1 24:1 117:1 174:1 202:1 216:1 222:1 226:2 229:1 233:1 237:1 242:2 246:1 247:1 254:1 261:1 263:1 265:1 272:1 276:1 277:1 352:1 408:1 410:1 429:1 449:1 464:1 470:1 479:1 496:1 502:1 
1 0 1:0.68944104 5:1 7:4 23:1 233:1 260:1 262:4 263:2 267:1 278:1 283:1 413:1 469:1 479:1 481:1 484:1 496:1 
1 0 1:0.40201513 5:-2 7:2 86:1 212:1 226:1 260:-2 262:2 
1 0 1:0.29880715 7:2 9:1 59:1 65:1 91:1 92:1 102:1 156:1 216:1 222:1 226:1 247:1 249:1 256:1 262:2 303:1 447:1 479:2 501:1 502:1 
1 0 1:0.06681531 7:2 79:1 146:1 233:1 247:1 254:1 264:1 270:1 502:1 505:1 
1 0 1:0.04152274 7:3 8:2 209:1 224:1 226:2 257:1 258:1 265:1 332:1 344:1 471:1 479:1 496:2 502:1 
1 0 1:0.067419986 7:5 45:1 209:2 211:1 216:2 226:1 246:1 257:1 258:1 265:1 332:1 344:1 471:1 479:1 496:2 502:1 
1 0 1:0.24573659 5:-3 7:1 201:1 216:1 224:1 227:1 229:1 245:1 247:1 254:1 256:1 261:1 265:1 276:1 298:1 337:1 394:1 448:1 471:1 479:1 480:1 481:1 484:1 490:1 495:1 496:1 503:1 509:1 511:1 
1 0 1:0.12510865 7:3 142:1 209:1 216:1 232:1 235:2 244:1 247:1 261:1 265:1 276:1 298:1 337:1 394:1 448:1 471:1 479:1 480:1 481:1 484:1 490:1 495:1 496:1 503:1 509:1 511:1 
1 0 1:0.083333333 7:2 9:1 216:1 260:-3 298:1 407:1 471:1 482:1 483:1 501:1 
1 0.8255589979622991 1:0.21320072 5:-3 7:1 11:1 49:1 93:1 216:5 227:1 235:1 238:1 241:1 246:1 258:1 261:1 265:2 403:1 464:1 471:1 478:1 479:1 496:1 497:1 
1 0 1:0 7:2 264:1 270:1 502:1 505:1 
1 0 1:0.12598816 7:1 8:1 23:1 25:1 42:1 233:1 258:1 262:1 265:1 341:1 
1 0 1:0.42163702 5:1 7:2 233:1 241:1 262:2 263:1 277:1 278:1 329:1 349:1 
1 0.3154674474234335 1:0.2173913 7:2 45:1 209:2 216:1 222:1 226:2 241:1 256:1 261:1 265:1 276:1 298:1 337:1 394:1 448:1 471:1 479:1 480:1 481:1 484:1 490:1 495:1 496:1 503:1 509:1 511:1 
1 0 1:0.47140452 7:2 63:1 224:1 262:2 263:1 318:1 333:1 462:1 464:2 479:1 509:1 
0.6048471045123459 0 1:0.36004115 7:2 25:1 109:1 209:2 216:1 226:1 233:1 235:1 246:1 272:1 286:1 321:1 328:1 366:1 371:1 464:2 469:1 471:2 488:1 489:1 
0 0.2916668066698975 1:0.30096463 7:1 8:1 70:1 193:1 216:1 225:1 254:1 261:1 265:1 276:1 298:1 337:1 394:1 448:1 471:1 479:1 480:1 481:1 484:1 490:1 495:1 496:1 503:1 509:1 511:1 
1 0 1:0.13987572 7:2 14:1 21:1 27:1 34:1 212:1 224:1 226:2 241:1 250:2 261:1 263:1 265:1 272:1 276:1 277:1 352:1 408:1 410:1 429:1 449:1 464:1 470:1 479:1 496:1 502:1 
1 0 1:0.3380617 7:2 8:1 22:1 23:1 262:2 297:1 454:1 464:1 469:1 471:1 481:1 490:1 
0 0.2132915825344789 1:0.20851441 7:1 82:2 109:1 208:1 234:1 241:1 254:1 261:1 265:1 276:1 298:1 337:1 394:1 448:1 471:1 479:1 480:1 481:1 484:1 490:1 495:1 496:1 503:1 509:1 511:1 
1 0 1:0.068041382 7:1 8:1 22:1 25:1 240:1 250:1 262:1 279:1 370:1 471:2 477:1 481:1 484:1 496:2 502:1 509:1 511:1 
1 0 1:0.29192018 7:2 11:1 55:1 69:1 216:1 222:1 235:1 256:1 262:2 264:1 270:1 310:1 324:1 470:1 471:1 476:1 496:2 501:1 509:1 
0.8042961834826615 0 1:0.12038585 7:1 12:1 28:1 49:1 207:1 222:1 238:1 241:1 256:1 261:1 265:1 276:1 298:1 337:1 394:1 448:1 471:1 479:1 480:1 481:1 484:1 490:1 495:1 496:1 503:1 509:1 511:1 
1 1 1:0.14142136 7:2 161:1 224:1 232:1 262:1 264:1 270:1 276:1 402:1 464:3 468:1 471:1 481:1 496:1 497:1 
0.6075769535726426 0 1:0 7:1 65:1 209:1 216:1 258:1 263:1 265:1 277:1 318:1 333:1 479:1 
1 0 1:0.10910895 7:1 9:1 26:2 34:2 52:1 135:2 211:1 226:1 229:2 241:2 246:3 260:-3 298:1 407:1 471:1 482:1 483:1 501:1 
1 0 1:0.38095238 7:1 17:1 47:1 116:1 161:1 209:2 216:1 222:1 226:1 246:1 247:1 248:1 254:1 272:1 286:1 321:1 328:1 366:1 371:1 464:2 469:1 471:2 488:1 489:1 
1 0 1:0.45584231 7:2 8:1 22:1 23:1 136:1 235:1 241:1 262:2 291:1 329:1 476:1 
1 0 1:0.4472136 7:3 28:1 172:1 183:1 188:1 209:1 216:1 233:2 254:1 260:-3 262:3 316:1 398:1 464:3 470:1 471:1 481:1 482:1 483:1 486:1 490:1 492:1 509:1 
0.6764970266749938 0 1:0.11664237 7:1 12:1 51:1 70:1 90:1 209:1 213:1 241:1 246:1 247:1 254:1 272:1 286:1 321:1 328:1 366:1 371:1 464:2 469:1 471:2 488:1 489:1 
1 0 1:0.23204774 7:1 48:1 50:1 216:1 222:1 224:2 229:1 246:1 262:1 264:1 299:1 304:1 322:1 465:1 467:1 471:1 479:2 481:3 489:1 497:1 501:1 
0 0.1275270796581302 1:0.060522753 7:1 11:1 17:1 225:1 240:1 241:1 272:1 286:1 321:1 328:1 366:1 371:1 464:2 469:1 471:2 488:1 489:1 
0 1 1:0.072739297 7:1 220:1 222:1 226:1 233:1 242:1 272:1 286:1 321:1 328:1 366:1 371:1 464:2 469:1 471:2 488:1 489:1 
1 0 1:0.23904572 7:1 244:1 262:2 264:1 297:1 469:1 479:1 481:1 
1 0 1:0.57142857 7:2 216:1 262:2 263:1 277:1 278:1 
1 0 1:0.3086067 7:1 8:1 25:1 246:1 262:2 263:1 268:1 468:1 479:1 483:1 486:1 496:1 501:1 509:1 511:1 
0.2912158622317884 0 1:0 7:2 8:1 36:1 221:1 264:1 270:1 502:1 505:1 
1 0.1682725406240734 1:0.084515425 3:1 7:1 10:1 86:1 262:1 264:1 270:1 278:1 389:1 464:2 469:1 480:1 489:1 492:1 496:1 
1 0 1:0.24525574 7:2 39:1 216:1 229:1 240:1 251:1 262:2 464:1 478:1 479:1 489:1 496:1 501:1 
1 0 1:0.098692754 2:1 7:1 8:3 22:3 57:1 130:1 209:1 212:1 214:1 224:1 229:2 234:1 237:1 241:1 242:1 249:1 262:1 276:1 306:1 310:1 471:2 485:1 490:1 494:1 495:1 496:1 497:1 509:1 
1 0 1:0.6172134 7:2 36:1 74:1 221:1 262:2 263:1 433:1 
1 0 1:0.13363062 7:1 66:1 79:1 209:1 216:1 226:2 232:1 241:1 262:1 300:1 417:1 
1 0.2260994858686213 1:0.18973666 7:1 74:1 121:1 209:1 216:1 221:1 228:2 235:2 241:1 246:1 254:1 258:1 262:1 264:1 265:1 270:1 310:1 465:1 481:1 490:1 
1 0.5534799838286674 1:0.4868645 6:1 7:4 10:1 23:1 127:1 216:1 226:1 262:2 389:1 479:1 502:1 
1 0 1:0.093250481 7:1 8:1 179:1 216:2 226:1 235:1 238:1 240:2 247:1 261:1 263:1 265:1 272:1 276:1 277:1 352:1 408:1 410:1 429:1 449:1 464:1 470:1 479:1 496:1 502:1 
1 0 1:0.23570226 7:1 9:2 15:1 43:1 95:1 209:1 213:1 216:2 218:1 226:1 229:1 246:4 256:1 260:-3 298:1 407:1 471:1 482:1 483:1 501:1 
0 1 1:0 7:1 246:1 272:1 286:1 321:1 328:1 366:1 371:1 464:2 469:1 471:2 488:1 489:1 
1 0 1:0.66899361 5:-3 7:4 224:1 227:1 254:1 262:4 264:1 411:1 469:1 477:1 484:1 504:1 506:1 
1 0 1:0.32496684 7:2 21:1 41:1 66:1 86:1 103:1 200:1 224:1 226:2 229:1 233:1 241:1 242:1 254:1 255:1 262:2 297:1 325:1 455:1 471:1 488:1 496:1 
1 0 1:0.16222142 5:1 7:1 31:1 128:1 210:1 216:2 229:1 241:1 246:1 247:1 260:-3 298:1 407:1 471:1 482:1 483:1 501:1 
1 0 1:0.62994079 7:2 8:1 216:1 262:2 263:1 277:1 278:1 329:1 349:1 
1 0 1:0 7:2 8:1 81:1 108:1 123:1 216:1 228:1 230:1 237:1 242:1 254:1 264:1 270:1 502:1 505:1 
0 0.8309632484234565 1:0.9258201 3:1 7:1 8:1 10:1 22:1 63:1 78:1 224:1 258:1 263:1 265:1 277:1 318:1 333:1 479:1 
1 0 1:0.083333333 7:2 9:1 105:1 226:1 264:1 270:1 502:1 505:1 
1 0 1:0.23918244 2:2 7:2 9:1 12:1 26:1 100:1 224:1 226:1 262:1 264:1 315:1 344:1 425:1 
1 0 1:0.15018785 5:-2 7:2 21:1 31:1 209:1 213:1 222:1 242:1 245:1 247:1 254:1 272:1 286:1 321:1 328:1 366:1 371:1 464:2 469:1 471:2 488:1 489:1 
1 0 1:0.12371791 5:-3 7:1 17:1 34:1 39:1 191:1 216:1 222:1 226:1 227:1 229:1 230:1 239:1 246:2 248:1 251:1 254:1 272:1 286:1 321:1 328:1 366:1 371:1 464:2 469:1 471:2 488:1 489:1 
0 0.2380355608303375 1:0 7:1 47:1 226:1 230:1 247:1 272:1 286:1 321:1 328:1 366:1 371:1 464:2 469:1 471:2 488:1 489:1 
1 0.01912959053109775 1:0.15194744 7:1 9:3 33:1 43:1 60:2 83:1 179:1 195:1 209:2 220:1 241:1 254:1 272:1 286:1 321:1 328:1 366:1 371:1 464:2 469:1 471:2 488:1 489:1 
1 0 1:0.31814238 5:-1 7:2 53:1 54:1 209:1 224:1 225:1 226:1 227:1 232:1 237:1 246:1 262:1 282:1 289:1 464:1 479:1 481:1 484:1 489:1 502:1 
1 0 1:0.052128604 7:1 216:1 222:1 244:1 246:1 247:1 261:1 265:1 276:1 298:1 337:1 394:1 448:1 471:1 479:1 480:1 481:1 484:1 490:1 495:1 496:1 503:1 509:1 511:1 
1 0 1:0.40567404 7:2 12:1 17:2 31:1 107:1 116:1 209:2 216:2 222:1 226:1 241:1 254:1 262:1 264:1 270:1 276:1 402:1 464:3 468:1 471:1 481:1 496:1 497:1 
0 0.6804494066490971 1:0.20412415 3:1 7:1 10:1 96:1 258:1 263:1 265:1 277:1 318:1 333:1 479:1 
1 0 1:0.35410026 7:3 157:1 216:1 222:1 235:1 241:1 250:1 262:3 328:1 349:1 464:1 465:2 481:2 484:1 489:1 498:1 
1 0 1:0.40824829 7:1 23:1 74:1 262:1 
1 0 1:0.4472136 7:2 235:1 262:2 263:1 
1 0 1:0.091287093 7:1 9:1 15:1 23:1 134:1 209:2 214:1 225:1 234:1 237:1 241:1 262:1 287:1 296:1 477:1 
1 0 1:0 7:2 216:1 254:1 261:1 263:1 265:1 272:1 276:1 277:1 352:1 408:1 410:1 429:1 449:1 464:1 470:1 479:1 496:1 502:1 
0 0.3734143316685521 1:0 7:1 8:1 272:1 286:1 321:1 328:1 366:1 371:1 464:2 469:1 471:2 488:1 489:1 
1 0.5749645783455254 1:0.15811388 3:1 7:1 9:1 10:1 15:1 55:1 210:1 226:1 235:1 264:1 270:1 502:1 505:1 
1 0 1:0 7:2 216:1 258:1 263:1 265:1 277:1 318:1 333:1 479:1 
1 0 1:0.1 7:2 98:1 122:1 209:1 216:2 222:1 235:1 239:1 241:1 249:1 261:1 263:1 265:1 272:1 276:1 277:1 352:1 408:1 410:1 429:1 449:1 464:1 470:1 479:1 496:1 502:1 
1 0 1:0.67175144 7:4 36:1 127:1 164:1 209:1 224:1 226:1 229:1 256:1 260:1 262:4 263:2 267:1 278:1 283:1 413:1 469:1 479:1 481:1 484:1 496:1 
1 0 1:0.24253563 7:2 8:1 9:1 15:1 22:1 228:1 247:1 262:2 284:1 306:1 360:1 415:1 469:1 481:2 
1 0.4324920060344194 1:0.23836565 7:2 80:1 136:1 216:1 222:1 233:1 241:2 254:1 257:1 258:1 265:1 332:1 344:1 471:1 479:1 496:2 502:1 
1 0 1:0 7:2 216:1 224:1 235:1 238:1 239:1 240:1 264:1 270:1 502:1 505:1 
0 0.05618330256435167 1:0.29488391 7:1 91:1 163:1 203:1 226:1 235:2 241:1 254:1 256:1 261:1 265:1 276:1 298:1 337:1 394:1 448:1 471:1 479:1 480:1 481:1 484:1 490:1 495:1 496:1 503:1 509:1 511:1 
1 0 1:0.10050378 7:1 233:2 235:1 254:1 262:1 264:1 324:1 334:1 485:1 501:1 503:1 
1 0 1:0.5424508 7:4 59:1 68:1 140:1 149:1 170:1 218:1 242:1 245:1 254:1 262:4 307:1 413:1 463:1 476:1 481:1 492:1 499:1 502:1 511:1 
1 0 1:0.45074894 7:4 11:1 33:1 48:1 183:2 196:1 232:1 241:3 254:1 262:4 307:1 413:1 463:1 476:1 481:1 492:1 499:1 502:1 511:1 
1 0 1:0.53452248 7:2 9:1 42:1 214:1 224:1 226:1 262:4 291:1 382:1 419:1 464:1 479:1 481:1 484:1 511:1 
1 0 1:0.079056942 7:1 9:1 24:1 27:1 224:1 246:1 264:1 270:1 502:1 505:1 
0 0.3446232253246407 1:0.34914862 7:1 9:1 15:1 21:1 147:1 209:3 213:1 216:1 226:1 241:1 242:1 272:1 286:1 321:1 328:1 366:1 371:1 464:2 469:1 471:2 488:1 489:1 
1 0 1:0.080582296 7:1 9:1 15:1 42:1 79:1 176:1 209:1 240:1 247:1 260:-3 262:1 263:1 377:1 469:1 475:1 479:1 482:1 
1 0 1:0.125 7:1 23:1 106:2 262:1 263:1 277:1 280:1 495:1 505:1 
1 0.04572974179177761 1:0.045360921 2:4 7:2 33:1 87:1 185:1 224:2 233:1 235:1 241:1 254:1 260:-3 298:1 407:1 471:1 482:1 483:1 501:1 
1 0.1756624236821021 1:0.13693064 7:2 8:1 13:1 213:1 224:1 228:1 231:1 241:1 246:1 254:1 256:1 257:1 258:1 265:1 332:1 344:1 471:1 479:1 496:2 502:1 
1 0.1270218907353655 1:0.27801922 7:2 224:3 225:1 233:1 254:1 256:1 262:2 264:1 360:1 481:1 
1 0 1:0 7:2 29:1 51:1 105:1 160:1 214:1 226:2 264:1 270:1 502:1 505:1 
1 0 1:0.17391304 7:1 82:1 109:1 207:1 209:1 226:1 234:1 235:2 247:1 250:1 261:1 265:1 276:1 298:1 337:1 394:1 448:1 471:1 479:1 480:1 481:1 484:1 490:1 495:1 496:1 503:1 509:1 511:1 
1 0 1:0.06984303 7:5 40:1 216:1 224:1 246:2 257:1 258:1 265:1 332:1 344:1 471:1 479:1 496:2 502:1 
1 0 1:0.27954262 7:1 17:1 31:1 51:1 56:1 90:1 107:1 207:1 216:3 222:3 241:1 247:2 272:1 286:1 321:1 328:1 366:1 371:1 464:2 469:1 471:2 488:1 489:1 
0.5706859328732232 0.01413907274415971 1:0.11396058 7:1 17:1 21:1 26:1 32:1 122:1 216:1 224:2 226:1 240:1 241:3 242:1 244:1 256:1 272:1 286:1 321:1 328:1 366:1 371:1 464:2 469:1 471:2 488:1 489:1 
1 0 1:0.26673253 7:1 24:1 38:1 206:1 209:1 216:2 224:1 240:1 241:1 246:1 247:1 250:1 254:1 261:1 265:1 276:1 298:1 337:1 394:1 448:1 471:1 479:1 480:1 481:1 484:1 490:1 495:1 496:1 503:1 509:1 511:1 
0 0.2376645755592142 1:0.28571429 2:1 7:1 17:1 43:1 66:1 107:1 155:1 181:1 209:1 216:1 224:1 229:1 232:1 247:1 254:1 256:1 272:1 286:1 321:1 328:1 366:1 371:1 464:2 469:1 471:2 488:1 489:1 
0 1 1:0 7:1 258:1 263:1 265:1 277:1 318:1 333:1 479:1 
1 0 1:0.48198019 7:4 40:1 226:2 246:1 262:3 263:2 464:1 479:1 481:2 
1 0 1:0.14213381 7:2 39:1 216:1 226:1 235:1 246:1 254:1 260:-3 298:1 407:1 471:1 482:1 483:1 501:1 
1 0 1:0.58925565 7:2 8:1 22:1 23:1 74:1 94:1 262:2 263:1 291:1 476:1 
1 0.5438794795882386 1:0.2 7:2 160:1 213:1 262:1 264:1 270:1 276:1 402:1 464:3 468:1 471:1 481:1 496:1 497:1 
1 0 1:0.28426762 7:2 11:1 73:1 246:1 262:2 299:1 331:1 464:2 467:1 471:1 475:1 480:1 481:1 
0 0.3670204696857204 1:0.19518001 7:1 9:1 17:1 31:1 179:1 214:1 226:1 229:1 241:1 242:1 245:1 246:1 254:1 272:1 286:1 321:1 328:1 366:1 371:1 464:2 469:1 471:2 488:1 489:1 
1 0 1:0.29397237 7:2 9:1 11:2 21:1 31:1 66:1 105:1 207:1 209:1 216:1 225:1 244:1 246:1 256:1 272:1 286:1 321:1 328:1 366:1 371:1 464:2 469:1 471:2 488:1 489:1 
1 0 1:0.075973718 5:-3 7:1 11:1 17:1 21:1 28:1 47:1 92:1 207:1 213:1 220:1 224:1 227:1 229:1 233:1 241:1 242:1 246:1 254:3 272:1 286:1 321:1 328:1 366:1 371:1 464:2 469:1 471:2 488:1 489:1 
1 0 1:0.31980107 7:1 27:1 243:1 262:2 267:1 282:1 432:1 464:1 471:1 481:1 483:1 494:1 496:1 502:1 511:1 
-1 0 1:0.18136906 6:1 7:1 10:1 17:1 24:1 142:1 209:2 216:4 226:1 229:1 237:1 242:1 244:1 261:1 263:1 265:1 272:1 276:1 277:1 352:1 408:1 410:1 429:1 449:1 464:1 470:1 479:1 496:1 502:1 
-1 0 1:0.56920998 7:3 11:1 24:1 146:1 209:1 222:1 235:1 254:1 261:1 262:3 265:1 
-1 0.01621292326695333 1:0.051298918 7:2 12:1 216:1 221:1 226:1 234:1 235:2 247:1 250:1 261:1 263:1 265:1 272:1 276:1 277:1 352:1 408:1 410:1 429:1 449:1 464:1 470:1 479:1 496:1 502:1 
-1 0 1:0.55 7:3 13:1 105:1 180:1 201:1 247:1 254:1 262:3 481:1 496:1 501:1 502:1 509:1 
-1 0 1:0.11470787 7:1 56:1 161:1 209:1 216:1 229:2 234:1 261:1 262:2 265:1 479:1 487:1 493:1 502:1 
-1 0 1:0.18549556 7:2 40:1 95:1 216:1 262:2 288:1 340:1 344:1 439:2 477:1 487:1 496:2 501:2 511:1 
-1 0 1:0.13957263 7:1 9:1 12:1 130:1 209:1 222:1 246:1 254:1 262:1 267:1 312:1 336:1 378:1 392:1 454:1 471:1 488:2 497:1 500:1 501:1 511:1 
-1 0 1:0.31701148 5:-3 7:3 99:1 100:1 177:1 227:1 236:1 241:1 245:2 247:2 262:3 263:1 266:1 393:1 483:1 490:1 501:1 506:1 
-1 0.3618605370246094 1:0.22727273 7:1 29:1 69:1 103:1 209:1 215:1 218:1 225:1 233:1 235:1 246:1 250:1 254:1 255:1 256:1 262:1 267:1 312:1 336:1 378:1 392:1 454:1 471:1 488:2 497:1 500:1 501:1 511:1 
-1 0.1479717424770827 1:0.16412199 7:1 12:1 57:1 81:1 123:1 137:1 199:1 216:1 233:2 242:1 245:1 246:1 256:1 262:2 264:1 279:1 318:1 414:1 464:1 471:1 481:1 484:1 509:1 
-1 0 1:0.35082321 5:-3 7:2 133:1 194:1 224:2 226:1 227:1 230:1 232:1 233:1 238:1 239:1 251:1 261:1 262:2 265:1 
-1 1 1:0.1754116 7:1 9:1 27:1 226:1 246:1 262:1 267:1 289:1 464:1 469:2 471:1 479:1 481:1 496:1 502:1 
-1 0 1:0.34016803 2:1 6:1 7:3 10:1 12:1 24:1 28:1 36:1 49:1 216:2 233:1 237:1 247:1 262:3 264:2 303:1 307:1 320:1 487:1 509:1 
-1 0 1:0.32732684 7:2 8:1 34:1 151:1 167:1 216:1 223:1 234:1 237:1 246:1 247:2 254:1 257:1 260:1 262:2 264:1 267:1 276:1 320:1 402:1 424:1 479:2 483:1 501:1 502:2 511:1 
-1 0 1:0.34718254 7:2 134:1 209:2 216:2 226:1 245:1 262:2 364:1 367:1 465:1 471:1 481:3 489:1 
-1 0 1:0.18856181 7:1 93:1 163:1 214:1 216:1 223:2 226:1 235:1 237:1 238:1 241:1 246:1 254:1 258:1 261:1 265:2 403:1 464:1 471:1 478:1 479:1 496:1 497:1 
-1 0 1:0.16269784 7:1 209:2 216:1 231:1 241:1 257:1 258:1 265:1 332:1 344:1 471:1 479:1 496:2 502:1 
-1 0 1:0.065372045 7:1 27:1 32:1 220:1 225:1 226:1 238:1 240:1 241:1 246:1 258:1 261:1 265:2 403:1 464:1 471:1 478:1 479:1 496:1 497:1 
-1 0 1:0.52174919 7:2 207:1 234:1 256:1 262:2 267:2 326:1 489:1 496:1 502:1 511:2 
-0.2180408991805667 0 1:0.51851852 5:-1 7:3 12:1 87:1 209:1 216:2 224:2 239:1 256:1 262:3 317:1 439:1 464:1 471:1 479:1 501:1 506:1 
-1 0 1:0.36980013 7:2 24:1 210:1 224:1 226:2 244:1 246:1 256:1 260:-3 262:2 388:1 449:1 479:2 481:1 482:1 485:1 487:1 488:1 493:1 494:1 506:1 
-0.5620279752307038 0 1:0.47280543 7:3 9:1 15:1 62:1 64:1 88:1 216:1 229:2 245:1 247:1 262:3 317:1 439:1 464:1 471:1 479:1 501:1 506:1 
-1 0 1:0.055901699 7:3 226:1 241:1 246:1 247:1 254:1 264:1 270:1 502:1 505:1 
-0.6822118149151969 0 1:0.66742381 7:3 37:1 126:1 209:1 222:1 223:2 262:3 267:1 292:1 376:1 464:1 477:1 478:1 489:1 499:1 501:1 
-1 0 1:0.45037735 7:3 216:1 230:1 262:3 269:1 344:1 354:1 402:1 464:1 471:1 496:1 509:1 511:1 
-1 0 1:0.13074409 7:1 11:3 16:1 56:1 58:1 71:1 77:1 103:1 112:1 158:1 225:1 231:1 235:2 241:2 244:1 246:1 254:1 262:1 267:1 327:1 342:1 462:1 471:1 481:1 488:2 496:1 501:1 
-1 0 1:0.31622777 7:3 8:2 11:1 30:1 34:1 224:1 229:1 256:1 262:3 264:1 270:2 347:1 471:1 487:1 488:1 
-1 0 1:0.095346259 7:2 11:1 55:1 210:1 212:1 224:1 246:1 247:1 249:1 250:1 257:1 258:1 265:1 332:1 344:1 471:1 479:1 496:2 502:1 
-1 0.7513552881536636 1:0.50395263 7:2 254:1 262:2 266:1 328:1 501:1 
-1 1 1:0.18353259 7:3 9:1 30:1 214:1 222:1 246:1 254:1 262:1 264:1 270:1 276:1 402:1 464:3 468:1 471:1 481:1 496:1 497:1 
-1 0 1:0.46709937 7:2 9:1 216:1 262:2 295:1 350:1 471:1 
-1 0 1:0.11785113 7:1 12:1 72:1 87:1 207:1 216:1 226:1 233:2 241:1 246:1 261:2 262:2 265:2 477:1 
-1 1 1:0 7:1 33:1 51:2 241:1 246:2 247:2 272:1 286:1 321:1 328:1 366:1 371:1 464:2 469:1 471:2 488:1 489:1 
-1 0 1:0.40533961 7:2 12:1 39:1 41:1 212:1 228:1 234:1 237:1 239:1 246:1 262:2 276:1 348:1 420:1 471:1 479:1 487:1 489:2 492:2 495:1 501:1 509:1 
-1 0 1:0.32659863 7:3 216:1 228:1 230:1 237:1 238:1 241:1 246:1 256:1 260:-3 262:2 267:1 280:1 316:1 327:1 464:2 465:1 471:1 481:1 482:1 484:1 489:1 496:1 
-1 0.03040181337808347 1:0.042257713 7:3 8:3 22:1 32:1 91:1 222:1 226:2 233:1 241:1 264:1 270:1 502:1 505:1 
-1 1 1:0.24253563 7:2 262:1 464:2 471:1 486:1 496:1 
-1 0 1:0.20942695 5:-6 7:1 9:1 15:1 27:1 137:1 180:1 182:1 216:2 227:2 232:1 234:1 235:1 241:1 245:1 262:1 264:1 370:1 372:1 392:1 479:1 481:1 496:1 501:1 
-1 0.8455197104522971 1:0.20446521 7:1 12:1 34:1 209:1 214:2 216:1 224:1 226:1 241:1 247:1 257:1 262:1 264:1 437:1 464:2 471:1 477:1 481:1 488:1 
-1 0 1:0.24618298 7:2 9:1 24:1 63:1 159:1 209:1 216:1 226:1 229:1 254:1 261:1 262:2 265:1 311:1 385:1 437:1 481:1 488:1 496:1 500:1 
-1 0 1:0.047836487 7:1 9:1 60:1 89:1 170:1 262:1 400:1 479:1 489:1 495:2 501:2 509:1 
-1 0 1:0.48038446 7:3 209:1 216:1 234:1 241:1 246:1 254:1 262:3 264:1 360:1 441:1 462:1 481:1 483:1 484:1 496:1 
-1 0 1:0.37712362 7:2 9:1 12:1 38:1 51:1 55:1 93:1 216:1 233:1 234:1 241:1 246:1 262:2 421:1 469:1 471:2 479:1 481:1 496:1 501:1 502:1 
-1 0 1:0.25724788 7:2 53:1 83:1 165:1 216:2 220:1 222:1 224:1 235:1 241:2 242:1 246:2 249:1 251:1 262:2 267:1 294:1 296:1 467:1 483:1 489:1 492:1 494:1 501:1 
-1 0.8087769799421108 1:0.065372045 7:1 162:1 209:1 210:1 226:1 247:1 258:1 261:1 265:2 403:1 464:1 471:1 478:1 479:1 496:1 497:1 
-1 0 1:0.19518001 7:1 9:1 44:1 49:1 67:1 210:1 212:1 216:1 224:2 226:3 234:1 242:1 246:1 258:1 262:3 265:1 471:1 492:1 497:1 502:1 503:1 
-1 0.4727022569987489 1:0.48536267 3:1 7:2 10:1 100:1 262:2 263:1 501:1 509:1 
-1 0 1:0.38924947 5:-3 7:2 28:1 93:1 95:1 223:1 226:1 227:1 237:1 246:1 262:2 356:2 421:1 481:3 490:1 492:1 501:2 
-1 0 1:0.45834925 7:3 8:1 29:1 42:1 85:1 138:1 139:1 162:1 226:2 242:1 247:1 260:1 262:3 264:1 303:1 428:1 502:1 509:1 
-1 0 1:0.34299717 7:2 8:1 261:1 262:2 469:1 471:1 481:1 485:1 503:1 
-1 0.6314132173976494 1:0.11371471 7:2 12:1 32:1 209:1 225:1 230:2 241:2 256:1 262:1 333:1 416:1 471:2 475:1 479:1 481:1 486:1 488:1 489:1 509:1 511:1 
-1 0.07917645710866068 1:0.20602141 5:-1 6:1 7:2 10:1 59:1 69:1 143:1 209:1 222:1 227:1 229:1 247:1 256:1 262:1 263:1 264:1 281:1 299:1 370:1 437:1 477:3 480:1 488:1 490:1 500:1 
-1 0 1:0.16984156 7:2 34:1 81:2 209:3 216:1 222:1 242:1 247:2 254:1 256:1 262:2 364:1 367:1 465:1 471:1 481:3 489:1 
-1 0 1:0.40201513 7:3 26:1 135:1 209:1 226:2 228:1 241:1 246:1 262:3 267:1 363:1 400:1 464:1 495:3 497:1 501:1 509:1 
-1 0 1:0.18856181 5:-3 7:1 75:1 132:1 148:1 214:1 222:2 224:2 226:1 234:1 240:1 245:1 258:1 261:1 265:2 403:1 464:1 471:1 478:1 479:1 496:1 497:1 
-1 0 1:0.43701422 7:3 38:1 103:1 131:1 167:1 216:1 219:1 224:1 226:1 249:1 256:1 262:3 269:1 344:1 354:1 402:1 464:1 471:1 496:1 509:1 511:1 
-1 0 1:0.23440362 7:1 175:1 224:1 229:1 240:1 242:1 246:1 254:1 262:1 264:1 299:1 304:1 322:1 465:1 467:1 471:1 479:2 481:3 489:1 497:1 501:1 
-1 0.5191091183336323 1:0.12649111 7:1 84:1 224:1 233:1 247:1 250:1 254:1 262:1 264:1 270:1 342:1 368:1 405:1 462:1 471:1 479:1 481:1 487:1 489:1 496:1 
-0.7431515326303832 0 1:0.41030497 7:3 11:1 88:1 216:1 224:1 232:1 246:1 262:3 264:1 270:1 317:1 319:1 470:1 497:2 501:1 502:1 511:1 
-1 0.4352620801691687 1:0.061313934 7:2 9:1 15:1 72:1 118:1 207:1 212:1 239:1 257:1 258:1 260:-1 261:1 265:2 316:1 373:1 384:1 442:1 464:1 471:2 475:1 479:1 
-1 0 1:0.35355339 7:2 32:1 49:1 65:1 222:1 224:1 241:1 247:1 254:1 256:1 262:2 294:1 325:1 464:1 481:2 496:1 511:1 
-1 0 1:0.26375219 7:2 8:1 9:2 12:2 44:1 60:1 85:2 108:1 111:1 125:2 216:1 222:1 229:1 247:2 257:2 262:2 264:1 267:1 281:1 355:1 479:1 481:1 
-1 0 1:0.13416408 7:2 9:1 15:1 55:1 69:1 215:1 216:1 221:1 241:2 246:1 254:1 261:1 263:1 265:1 272:1 276:1 277:1 352:1 408:1 410:1 429:1 449:1 464:1 470:1 479:1 496:1 502:1 
-1 0 1:0.3407771 6:1 7:3 10:1 262:2 288:1 340:1 344:1 439:2 477:1 487:1 496:2 501:2 511:1 
-1 0 1:0.096076892 7:1 9:1 15:1 87:1 113:1 150:1 207:1 216:1 224:1 226:1 232:1 234:1 241:1 262:1 266:3 271:1 311:1 313:1 326:1 332:1 358:1 367:1 413:1 480:1 486:1 490:2 496:2 499:1 501:1 509:1 
-0 0.3124511439519428 1:0.59584969 7:4 129:1 198:1 224:1 262:4 266:1 430:1 453:1 464:3 471:1 474:1 511:1 
-1 0.3038456481689196 1:0.47628967 7:2 109:1 112:1 210:1 216:1 226:3 234:1 262:2 264:1 279:1 318:1 414:1 464:1 471:1 481:1 484:1 509:1 
-1 0 1:0.3086067 7:2 22:1 40:2 97:1 157:1 209:1 216:1 224:1 225:1 226:2 233:1 240:1 241:1 256:1 262:2 301:1 313:1 381:1 471:1 477:1 479:1 509:2 511:1 
-0.1417341036809898 0 1:0.36 3:1 6:1 7:3 10:2 226:1 229:1 234:1 238:1 246:1 248:1 262:3 264:2 303:1 307:1 320:1 487:1 509:1 
-1 0 1:0.11785113 5:2 7:1 54:1 115:1 209:1 214:1 216:1 218:1 246:1 262:1 306:1 312:1 336:1 378:1 464:1 481:1 496:3 497:1 
-1 0 1:0.40824829 7:3 9:1 48:1 50:1 85:1 91:1 229:1 232:1 235:1 242:1 246:1 253:1 254:1 262:3 282:1 285:1 350:1 471:1 479:1 481:1 
-1 0 1:0.44992127 7:3 9:1 105:1 186:1 207:1 226:1 228:1 229:1 241:1 262:3 412:1 471:1 477:1 490:1 496:1 505:1 
-1 0 1:0.4301545 7:3 11:2 44:1 45:1 57:1 89:1 119:1 209:1 210:1 225:1 241:2 246:1 247:1 254:2 262:2 264:1 293:1 312:1 319:1 374:1 462:1 464:2 471:1 475:1 477:1 479:1 484:1 496:1 498:1 502:1 509:1 
-0.2185884219141788 0 1:0.4516129 7:3 62:1 64:1 169:1 222:1 224:1 246:3 262:2 288:1 340:1 344:1 439:2 477:1 487:1 496:2 501:2 511:1 
-1 0 1:0.32025631 5:1 7:1 8:1 25:1 213:1 214:1 262:3 264:2 267:1 469:1 480:1 484:1 495:1 501:1 509:1 
-1 0 1:0.34114412 7:3 9:1 37:2 102:1 121:1 216:1 222:1 223:1 224:2 260:2 262:3 
-1 0 1:0.38251843 7:3 13:1 32:1 46:1 77:1 125:1 136:1 209:1 214:1 225:1 226:1 238:1 241:1 246:2 247:1 254:1 262:3 263:3 277:1 287:1 346:1 477:1 481:2 488:1 496:1 
-1 0.4314643905135931 1:0 7:2 8:1 246:1 254:1 257:1 258:1 265:1 332:1 344:1 471:1 479:1 496:2 502:1 
-1 0 1:0.4330127 3:1 5:1 7:3 10:1 84:1 168:1 238:1 247:1 262:3 266:1 303:1 308:1 326:1 327:1 346:1 388:1 464:1 473:1 480:1 496:1 497:1 
-1 0 1:0.062994079 5:-3 7:1 80:1 180:1 216:1 227:1 229:1 247:1 258:1 261:1 265:2 403:1 464:1 471:1 478:1 479:1 496:1 497:1 
-0.4710021656757967 0 1:0.37553381 5:-2 7:3 75:1 185:1 209:1 224:1 244:1 247:1 249:1 262:3 268:1 287:1 301:1 332:1 380:1 391:1 464:1 469:1 480:1 481:1 493:1 496:1 501:2 502:1 509:1 
-1 0 1:0.073323558 7:1 23:1 35:1 117:1 137:1 143:1 208:1 209:1 214:1 216:1 226:1 229:2 230:1 233:1 241:1 247:1 262:1 263:1 264:1 281:1 299:1 370:1 437:1 477:3 480:1 488:1 490:1 500:1 
-1 0 1:0.48038446 7:3 26:1 103:1 216:2 226:1 229:1 241:1 246:1 262:3 264:1 360:1 441:1 462:1 481:1 483:1 484:1 496:1 
-1 1 1:0 7:1 9:1 258:1 261:1 265:2 403:1 464:1 471:1 478:1 479:1 496:1 497:1 
-1 0 1:0.29554023 7:2 101:2 166:1 226:3 235:1 237:1 246:2 262:2 267:1 294:1 296:1 467:1 483:1 489:1 492:1 494:1 501:1 
-0.5567405422940424 0 1:0.40824829 5:1 7:3 128:1 216:2 226:1 230:2 234:1 246:1 262:3 267:1 285:1 342:1 373:1 471:1 481:1 495:1 
-1 0 1:0.59628479 7:2 192:1 243:2 247:2 254:1 262:2 264:1 502:1 509:1 
-1 0 1:0.42111744 5:2 7:3 262:4 304:1 307:1 308:1 322:1 339:1 490:1 502:1 
-0.9901818037086014 0 1:0.37062466 7:3 9:1 15:1 62:1 64:1 100:1 215:1 224:1 246:1 256:1 262:3 264:1 279:1 439:1 
-1 0 1:0.17782169 5:-3 7:1 38:1 76:1 227:1 229:2 250:1 254:2 261:1 265:1 276:1 298:1 337:1 394:1 448:1 471:1 479:1 480:1 481:1 484:1 490:1 495:1 496:1 503:1 509:1 511:1 
-1 0 1:0.4949134 5:-3 7:3 96:1 132:1 226:1 227:1 235:1 246:1 262:3 263:1 266:1 393:1 483:1 490:1 501:1 506:1 
-1 0 1:0.38031941 7:3 9:1 35:1 41:1 95:1 207:1 241:1 246:1 256:1 262:3 263:1 284:1 297:1 340:1 393:1 394:1 417:1 481:2 497:1 502:1 
-1 0 1:0.38251843 7:3 12:1 108:1 145:1 209:1 240:3 242:1 246:1 254:1 260:-3 262:3 316:1 398:1 464:3 470:1 471:1 481:1 482:1 483:1 486:1 490:1 492:1 509:1 
-1 0 1:0.052128604 2:1 7:1 9:1 182:1 209:2 216:1 222:1 226:1 233:1 264:1 270:1 502:1 505:1 
-1 1 1:0.26490647 6:2 7:2 10:2 222:1 260:-3 262:2 289:1 291:1 311:1 466:1 471:1 482:1 489:1 509:1 
-1 0.09443376526942861 1:0.33333333 7:2 25:1 262:2 264:1 267:1 293:1 306:1 310:1 348:1 471:1 488:1 489:1 496:1 501:1 
-1 0 1:0.33968311 7:1 8:1 22:1 23:1 216:1 222:1 229:1 233:1 246:1 262:1 287:1 296:1 477:1 
-1 0 1:0.38892223 7:2 36:1 46:1 222:1 233:1 234:1 246:1 262:2 386:1 421:1 465:1 479:1 481:1 484:1 488:1 489:1 
-1 0 1:0.26832816 7:2 166:1 214:1 216:2 224:1 226:1 241:1 246:1 247:1 260:-3 262:2 283:1 348:1 350:1 478:1 481:1 482:1 492:1 501:1 
-1 0.4334751887773394 1:0.1028689 7:2 46:1 58:1 126:1 216:1 222:1 224:1 254:2 256:1 258:1 261:1 265:2 403:1 464:1 471:1 478:1 479:1 496:1 497:1 
-1 0 1:0.60633906 5:1 7:3 9:1 48:1 173:1 247:1 254:1 258:1 260:1 262:3 265:1 339:1 423:1 493:1 502:1 
-1 0 1:0.29277002 7:2 32:1 118:1 132:1 141:1 188:1 209:1 214:1 216:1 218:1 222:1 226:1 236:1 241:1 246:2 262:2 264:1 270:1 327:1 373:1 462:1 467:1 494:1 
-1 0 1:0.35007002 6:1 7:2 214:1 216:1 226:1 230:1 248:1 262:2 469:1 499:1 
-1 0.2304718423273768 1:0.13074409 7:1 38:1 58:1 96:1 216:1 220:1 225:1 229:1 232:1 238:1 241:1 258:1 261:1 265:2 403:1 464:1 471:1 478:1 479:1 496:1 497:1 
-1 0 1:0.22941573 7:2 209:1 223:1 224:1 234:1 241:1 246:1 258:1 262:2 265:1 355:1 
-1 0 1:0.2 7:2 30:1 93:1 125:1 136:1 172:1 236:1 237:1 247:1 262:1 348:1 418:1 469:1 471:1 478:2 481:1 490:1 492:1 493:1 496:1 501:1 509:1 
-1 0 1:0.28180093 7:3 12:1 39:1 133:1 209:1 216:2 235:2 246:1 254:2 262:3 263:2 266:1 285:1 289:1 479:1 484:1 511:1 
-1 0.1586534908561574 1:0.040422604 7:1 9:1 21:1 40:4 205:1 215:1 218:1 238:1 242:1 244:1 258:1 261:1 265:2 403:1 464:1 471:1 478:1 479:1 496:1 497:1 
-1 0.6544498512441518 1:0.31622777 7:1 262:1 264:1 282:1 481:1 501:1 
-1 0 1:0.32496684 7:2 21:1 93:1 165:1 216:1 224:1 232:1 234:2 237:2 240:1 246:1 254:1 262:2 285:1 348:1 380:1 391:1 427:1 491:1 492:1 502:1 
-0.271104803029553 0 1:0.38235956 7:3 9:3 11:1 29:1 180:1 189:1 209:1 229:1 246:1 252:2 262:3 465:1 490:1 501:1 502:1 
-1 0 1:0.30779351 7:1 9:1 57:1 61:1 65:1 187:1 209:5 216:1 226:1 232:1 241:1 248:1 254:1 257:1 258:1 260:-1 261:1 265:2 316:1 373:1 384:1 442:1 464:1 471:2 475:1 479:1 
-1 0 1:0.18856181 7:1 12:1 14:1 30:1 109:1 166:1 209:1 216:2 224:1 226:1 235:1 254:2 258:1 261:1 265:2 403:1 464:1 471:1 478:1 479:1 496:1 497:1 
-1 1 1:0.17025131 7:1 8:1 11:1 83:1 125:1 146:1 215:1 216:1 222:1 224:1 232:1 235:1 241:1 258:1 263:1 265:1 277:1 318:1 333:1 479:1 
-1 1 1:0.27668579 2:1 7:1 61:1 187:1 209:2 257:1 258:1 260:-1 261:1 265:2 316:1 373:1 384:1 442:1 464:1 471:2 475:1 479:1 
-1 0.4378167578090179 1:0.40089186 7:2 39:1 70:1 209:1 226:2 241:1 256:1 262:2 267:1 303:1 464:1 471:1 
-1 0.3048568235790525 1:0.15075567 7:1 9:1 44:1 209:2 224:1 235:2 238:1 250:1 254:1 258:1 261:1 265:2 403:1 464:1 471:1 478:1 479:1 496:1 497:1 
-1 0 1:0.33678766 5:1 7:1 128:1 148:1 209:1 216:2 232:1 234:1 241:1 242:1 246:1 251:1 258:1 261:1 265:2 403:1 464:1 471:1 478:1 479:1 496:1 497:1 
-1 0 1:0.37796447 7:2 131:1 166:1 210:1 224:1 226:1 229:1 233:1 234:1 262:2 264:1 267:1 293:1 306:1 310:1 348:1 471:1 488:1 489:1 496:1 501:1 
-1 0 1:0.11145564 7:1 9:1 11:1 40:1 204:1 224:1 241:1 262:2 294:1 471:1 484:1 495:1 506:1 
-1 1 1:0 7:1 26:1 154:1 207:1 216:1 224:1 226:1 264:1 270:1 502:1 505:1 
-1 0 1:0.27652045 7:3 9:1 15:2 92:1 216:1 232:1 233:1 262:2 288:1 340:1 344:1 439:2 477:1 487:1 496:2 501:2 511:1 
-1 0 1:0.35856858 2:1 5:1 7:2 9:1 12:1 21:1 65:1 147:1 169:1 224:2 228:1 246:1 247:2 256:1 262:2 263:1 264:2 267:2 299:1 315:1 340:2 363:1 366:1 380:2 471:1 477:1 484:1 502:2 
-1 0.2579765902106347 1:0.098294637 2:1 7:2 8:1 11:1 43:1 209:1 215:1 225:1 229:1 246:1 250:1 254:1 260:-3 298:1 407:1 471:1 482:1 483:1 501:1 
-0.6586446349314147 0 1:0.48507125 3:1 7:3 10:1 30:1 67:1 138:1 209:1 216:1 229:1 232:1 234:1 254:1 260:1 262:3 264:1 303:1 428:1 502:1 509:1 
-1 0 1:0.40291148 7:3 9:1 15:1 62:1 64:1 216:1 224:1 256:1 262:3 264:1 279:1 439:1 
-1 0 1:0.40824829 7:3 27:1 30:1 95:1 216:1 224:1 226:1 262:3 266:1 303:1 308:1 326:1 327:1 346:1 388:1 464:1 473:1 480:1 496:1 497:1 
-1 0 1:0.29346959 5:-3 7:2 34:1 36:1 56:1 211:1 216:1 227:1 234:1 254:1 261:1 262:2 265:1 311:1 385:1 437:1 481:1 488:1 496:1 500:1 
-1 0 1:0.43357427 7:3 59:1 96:1 141:1 190:1 216:1 224:1 226:2 230:1 246:1 254:1 256:1 262:3 269:1 344:1 354:1 402:1 464:1 471:1 496:1 509:1 511:1 
-1 0 1:0.48488114 7:3 14:1 99:1 169:1 171:1 228:1 229:1 241:1 246:2 251:1 256:1 262:3 269:1 344:1 354:1 402:1 464:1 471:1 496:1 509:1 511:1 
-1 0.1433970831930753 1:0.28867513 2:1 7:1 57:1 81:1 123:1 209:1 214:1 216:1 224:1 226:2 234:1 241:1 242:1 246:1 247:1 260:2 262:1 309:1 370:1 464:1 469:1 471:1 473:1 501:1 
-1 0 1:0.086710997 7:1 9:1 11:2 35:1 196:1 210:2 212:1 216:1 224:1 234:1 246:1 247:1 262:1 264:1 315:1 344:1 425:1 
-1 0 1:0.35634832 7:2 12:1 48:1 209:1 216:1 262:2 462:1 489:1 511:1 
-1 0.7072777408304073 1:0.071066905 7:1 32:1 220:1 229:1 238:1 241:1 258:1 261:1 265:2 403:1 464:1 471:1 478:1 479:1 496:1 497:1 
-1 0 1:0.38461538 7:3 8:1 11:1 138:1 228:1 235:1 246:1 251:1 262:3 316:1 328:1 464:1 468:1 471:1 484:1 485:1 501:1 
-0.1033638572901074 0 1:0.4472136 6:1 7:3 10:1 239:1 247:1 262:3 264:1 303:1 305:1 340:1 346:1 484:1 487:1 490:1 497:1 501:1 508:1 509:1 
-1 0 1:0.55901699 7:3 8:1 247:1 262:3 263:1 477:1 479:1 483:1 488:1 
-1 0 1:0.64846646 7:3 30:1 55:1 157:1 210:1 213:1 216:1 222:1 226:2 229:1 233:1 246:1 256:1 262:3 328:1 349:1 464:1 465:2 481:2 484:1 489:1 498:1 
-1 0 1:0.53072278 7:3 30:1 143:1 210:1 216:1 226:1 230:1 241:1 246:1 254:1 262:3 267:1 285:1 342:1 373:1 471:1 481:1 495:1 
-1 0 1:0.25819889 7:1 8:1 22:1 46:1 148:1 216:3 224:1 226:1 228:1 235:1 244:1 258:1 261:1 265:2 403:1 464:1 471:1 478:1 479:1 496:1 497:1 
-1 0.9126424570344406 1:0.054232614 7:2 153:1 157:1 168:1 216:1 226:1 240:1 242:1 244:1 261:1 263:1 265:1 272:1 276:1 277:1 352:1 408:1 410:1 429:1 449:1 464:1 470:1 479:1 496:1 502:1 
-1 0 1:0.49029034 6:1 7:2 10:1 224:1 232:1 238:1 247:1 260:-3 262:2 388:1 449:1 479:2 481:1 482:1 485:1 487:1 488:1 493:1 494:1 506:1 
-1 0 1:0.13245324 7:1 8:2 9:1 25:1 45:1 209:1 216:1 222:1 226:1 241:1 246:1 247:1 254:1 257:1 258:1 260:-1 261:1 265:2 316:1 373:1 384:1 442:1 464:1 471:2 475:1 479:1 
-1 0.1266850716855946 1:0.15389675 7:1 17:1 21:1 31:1 38:1 134:1 209:1 216:2 226:1 244:1 261:1 263:1 265:1 272:1 276:1 277:1 352:1 408:1 410:1 429:1 449:1 464:1 470:1 479:1 496:1 502:1 
-0.2742322095818444 0 1:0.34994824 7:3 9:3 15:3 216:1 226:1 232:1 247:1 256:2 262:3 263:2 266:1 285:1 289:1 479:1 484:1 511:1 
-1 0 1:0.29398737 7:3 11:2 59:1 108:1 228:1 229:1 246:3 254:1 260:-3 262:3 316:1 398:1 464:3 470:1 471:1 481:1 482:1 483:1 486:1 490:1 492:1 509:1 
-1 0 1:0.34139437 7:3 61:1 73:1 209:1 213:1 216:1 229:1 230:1 246:1 262:3 264:1 266:2 315:1 354:1 450:1 469:1 496:1 502:1 509:1 511:1 
-1 0.8500322664977713 1:0.12038585 7:1 11:1 186:1 242:1 254:1 256:1 261:1 265:1 276:1 298:1 337:1 394:1 448:1 471:1 479:1 480:1 481:1 484:1 490:1 495:1 496:1 503:1 509:1 511:1 
-1 0 1:0.35355339 7:3 11:1 48:1 53:1 71:1 72:1 91:1 133:1 209:1 218:1 225:1 241:1 242:1 262:3 264:1 292:2 357:1 376:1 471:1 477:1 478:1 479:2 
-1 0 1:0.3678836 5:-3 7:1 214:1 216:1 227:1 229:1 246:1 254:1 262:1 311:1 416:1 464:1 471:1 484:2 489:1 
-1 0.7847747789525928 1:0.22283441 7:2 8:1 9:1 12:1 33:1 73:1 207:1 216:1 224:1 226:1 229:1 239:2 241:1 262:1 264:1 270:1 276:1 402:1 464:3 468:1 471:1 481:1 496:1 497:1 
-1 0 1:0.38575837 7:3 9:1 15:1 62:1 64:1 69:1 167:1 224:1 242:2 247:1 262:3 264:1 279:1 439:1 
-1 0 1:0.64715023 7:2 9:1 247:1 254:1 262:2 447:1 502:2 509:1 
-1 0 1:0.46676003 3:1 7:3 10:1 216:1 237:1 242:1 247:1 248:1 260:1 262:3 264:1 303:1 428:1 502:1 509:1 
-1 0.03566140358514008 1:0.45355737 7:3 61:1 233:1 237:2 260:-3 262:3 316:1 398:1 464:3 470:1 471:1 481:1 482:1 483:1 486:1 490:1 492:1 509:1 
-1 0 1:0.087038828 7:1 51:1 57:1 81:1 123:1 209:1 226:1 241:3 242:1 262:1 284:1 324:1 358:1 464:1 470:1 473:1 480:1 488:1 490:1 501:1 505:1 509:1 510:1 511:1 
-1 0 1:0.086956522 7:1 145:1 224:1 234:1 240:2 246:2 254:1 262:1 264:1 266:1 295:1 459:1 479:1 496:1 
-1 0 1:0.38490018 7:2 214:1 244:1 260:-2 262:2 341:1 467:1 481:1 
-1 0 1:0.48 7:3 9:2 48:1 52:1 65:1 232:1 254:1 262:3 263:1 279:1 290:1 297:1 343:1 475:1 479:1 481:1 487:1 502:1 
-1 0.4869973591041591 1:0.23414645 7:1 9:1 115:1 117:1 137:1 224:1 226:1 241:1 246:1 262:1 278:1 290:1 372:1 392:1 398:1 463:1 464:1 469:1 471:1 481:1 484:2 485:1 488:1 496:1 502:1 
-1 0 1:0.14744196 7:2 9:1 38:1 57:1 64:1 119:1 207:1 209:2 216:1 220:1 222:1 224:1 229:1 241:1 243:1 247:1 254:1 262:1 400:1 479:1 489:1 495:2 501:2 509:1 
-1 0 1:0.35 7:2 12:2 71:1 234:1 241:1 247:1 256:2 262:2 447:1 498:2 502:2 509:1 
-1 0 1:0.054073807 5:-3 7:2 11:1 29:1 35:1 38:1 215:1 224:1 225:1 227:1 251:1 256:2 258:1 261:1 265:2 403:1 464:1 471:1 478:1 479:1 496:1 497:1 
-1 0 1:0.4233902 5:-3 7:2 12:1 25:1 61:1 72:1 209:2 210:1 216:1 226:1 227:1 229:1 234:1 241:1 262:1 263:2 264:1 280:1 300:1 464:1 471:1 477:1 481:1 496:1 501:1 502:1 509:1 
-1 0.8865192153268971 1:0.11785113 7:1 48:1 95:1 173:1 207:1 216:1 226:1 229:1 260:1 262:1 263:1 280:1 468:1 469:1 
-1 0 1:0.56694671 7:2 48:1 192:1 224:2 246:1 247:1 262:2 287:1 304:1 320:1 477:1 479:1 496:1 502:1 509:1 511:1 
-1 0 1:0.16681153 7:1 24:1 36:1 145:1 210:1 212:1 224:2 226:1 234:1 235:1 246:1 247:2 261:1 265:1 276:1 298:1 337:1 394:1 448:1 471:1 479:1 480:1 481:1 484:1 490:1 495:1 496:1 503:1 509:1 511:1 
-1 0 1:0.5 5:1 7:4 12:1 74:1 222:2 226:1 232:1 241:1 246:1 254:1 262:3 263:1 502:1 
-1 0 1:0.22075539 7:2 9:1 12:1 84:1 130:1 226:1 230:1 246:2 247:1 254:1 256:1 260:-3 262:2 289:1 291:1 311:1 466:1 471:1 482:1 489:1 509:1 
-1 0 1:0.35464968 5:-3 7:3 38:1 44:1 77:1 227:1 229:2 254:1 262:3 264:1 279:1 439:1 
-1 1 1:0.1490712 7:1 29:1 30:1 216:1 241:1 246:1 260:-3 298:1 407:1 471:1 482:1 483:1 501:1 
-1 0 1:0.19611614 7:1 27:1 34:1 209:1 224:1 226:1 229:1 234:1 247:1 258:1 261:1 265:2 403:1 464:1 471:1 478:1 479:1 496:1 497:1 
-1 0 1:0.2981424 7:3 210:1 235:1 246:1 247:1 262:2 263:1 264:2 267:2 299:1 315:1 340:2 363:1 366:1 380:2 471:1 477:1 484:1 502:2 
-1 0 1:0.22941573 7:2 8:2 63:1 150:1 224:1 250:1 260:-1 261:1 262:2 265:1 314:1 324:1 398:1 464:1 477:1 482:1 484:1 502:1 511:1 
-1 0 1:0.22222222 7:2 60:1 216:1 223:1 224:2 231:1 262:2 263:1 289:1 406:1 422:1 471:1 478:1 489:1 492:1 501:1 502:2 509:1 
-1 0 1:0.079681907 7:1 11:1 50:1 72:1 102:1 156:1 158:1 175:1 209:1 213:1 216:1 222:1 237:1 241:1 247:1 256:1 262:1 264:1 299:1 304:1 322:1 465:1 467:1 471:1 479:2 481:3 489:1 497:1 501:1 
-1 0 1:0.39509184 7:1 9:1 15:1 81:1 87:1 123:1 188:1 220:1 224:1 232:1 235:1 242:1 246:1 247:3 254:3 262:1 339:1 479:1 488:1 502:1 505:1 509:1 
-1 0.3463550063796469 1:0.044901326 7:1 8:1 9:1 26:1 44:1 115:1 182:1 222:3 225:1 233:1 235:1 245:1 264:1 270:1 502:1 505:1 
-1 0 1:0.4645821 7:2 108:1 119:1 140:1 224:1 226:1 234:2 243:1 246:2 247:2 262:2 263:1 289:1 406:1 422:1 471:1 478:1 489:1 492:1 501:1 502:2 509:1 
-0.154991345095385 0 1:0.43948021 5:-3 7:3 61:1 143:1 209:3 215:1 216:1 226:1 227:1 228:1 231:1 235:1 237:1 254:1 262:3 285:1 398:1 465:1 471:1 481:1 485:1 496:1 501:1 509:1 
-1 0 1:0.13826023 7:2 33:1 85:1 89:1 184:2 222:1 232:1 241:2 246:2 256:1 262:2 315:1 471:1 478:1 479:2 486:1 
-1 1 1:0.13608276 7:1 98:1 216:2 254:1 258:1 261:1 265:2 403:1 464:1 471:1 478:1 479:1 496:1 497:1 
-1 0 1:0.36417852 7:2 9:1 33:1 89:1 119:1 211:1 222:1 241:1 246:1 247:1 262:2 363:1 374:1 395:1 479:1 481:1 489:2 498:1 501:2 502:2 
-1 0 1:0.44455422 7:3 62:1 64:1 171:1 224:1 226:1 235:1 240:2 262:3 266:1 343:1 471:1 479:1 487:1 501:1 
-1 0 1:0.35714286 7:3 9:1 24:1 184:1 262:3 264:1 270:1 317:1 319:1 343:1 471:1 484:2 500:1 502:1 
-1 -1 1:0.11952286 7:1 45:1 181:1 209:1 224:2 226:2 246:1 256:2 258:1 261:1 265:2 403:1 464:1 471:1 478:1 479:1 496:1 497:1 
-1 -1 1:0.12104551 7:2 9:1 15:1 179:1 209:1 224:1 247:1 272:1 286:1 321:1 328:1 366:1 371:1 464:2 469:1 471:2 488:1 489:1 
-1 -1 1:0.71987403 6:1 7:4 10:1 70:1 262:4 264:1 411:1 469:1 477:1 484:1 504:1 506:1 
-1 -1 1:0 7:1 264:1 270:1 502:1 505:1 
-1 -1 1:0 7:1 28:1 241:1 272:1 286:1 321:1 328:1 366:1 371:1 464:2 469:1 471:2 488:1 489:1 
-1 -1 1:0 7:1 258:1 261:1 265:2 403:1 464:1 471:1 478:1 479:1 496:1 497:1 
-1 -1 1:0.27300945 7:1 82:1 115:1 216:1 226:1 229:1 230:1 232:1 233:1 254:2 261:1 265:1 276:1 298:1 337:1 394:1 448:1 471:1 479:1 480:1 481:1 484:1 490:1 495:1 496:1 503:1 509:1 511:1 
-1 -1 1:0 6:1 7:2 10:1 260:-3 298:1 407:1 471:1 482:1 483:1 501:1 
-1 -1 1:0.071066905 7:2 216:1 254:1 258:1 261:1 265:2 403:1 464:1 471:1 478:1 479:1 496:1 497:1 
-1 -1 1:0.16903085 7:1 17:1 101:1 216:1 222:1 225:1 226:1 235:1 241:1 272:1 286:1 321:1 328:1 366:1 371:1 464:2 469:1 471:2 488:1 489:1 
-1 -1 1:0.37712362 5:1 7:2 9:1 15:1 209:1 210:1 220:1 226:1 246:1 262:1 264:1 270:1 276:1 402:1 464:3 468:1 471:1 481:1 496:1 497:1 
-1 -1 1:0 7:1 258:1 263:1 265:1 277:1 318:1 333:1 479:1 
-1 -1 1:0.28867513 6:1 7:1 10:1 258:1 263:1 265:1 277:1 318:1 333:1 479:1 
-1 -1 1:0.073323558 7:1 9:1 15:1 44:1 141:1 216:2 224:1 226:2 228:1 232:1 241:1 246:1 254:1 258:1 263:1 265:1 277:1 318:1 333:1 479:1 
-1 -1 1:0 3:1 7:1 10:1 260:-3 298:1 407:1 471:1 482:1 483:1 501:1 
-1 -1 1:0.16 7:2 122:1 215:1 221:1 232:1 242:2 245:1 254:1 256:1 262:1 264:1 270:1 276:1 402:1 464:3 468:1 471:1 481:1 496:1 497:1 
-1 -1 1:0.13159034 5:3 7:1 8:1 54:1 144:1 209:1 226:1 254:1 272:1 286:1 321:1 328:1 366:1 371:1 464:2 469:1 471:2 488:1 489:1 
-1 -1 1:0.12909944 6:1 7:1 10:1 21:1 224:1 242:1 257:1 258:1 265:1 332:1 344:1 471:1 479:1 496:2 502:1 
-1 -1 1:0 7:1 80:1 120:1 222:1 258:1 263:1 265:1 277:1 318:1 333:1 479:1 
-1 -1 1:0 2:1 7:1 225:1 235:1 272:1 286:1 321:1 328:1 366:1 371:1 464:2 469:1 471:2 488:1 489:1 
-1 -1 1:0.39036003 6:1 7:2 10:1 262:2 389:1 464:2 471:2 481:1 500:1 
-1 -1 1:0.097590007 7:1 12:1 233:1 272:1 286:1 321:1 328:1 366:1 371:1 464:2 469:1 471:2 488:1 489:1 
-1 -1 1:0.56195149 3:1 7:1 8:1 10:1 22:1 63:1 78:1 224:1 231:1 232:1 238:1 241:1 254:1 258:1 263:1 265:1 277:1 318:1 333:1 479:1 
-1 -1 1:0.065795169 7:2 226:1 233:1 241:1 272:1 286:1 321:1 328:1 366:1 371:1 464:2 469:1 471:2 488:1 489:1 
-1 -1 1:0.18090681 7:1 216:2 235:1 262:1 264:1 270:1 276:1 402:1 464:3 468:1 471:1 481:1 496:1 497:1 
